<?xml version="1.0"?>
<opencv_storage>
<stage3>
  <maxWeakCount>8</maxWeakCount>
  <stageThreshold>-7.3271238803863525e-01</stageThreshold>
  <weakClassifiers>
    <_>
      <internalNodes>
        0 -1 55782 -1.3840193860232830e-03</internalNodes>
      <leafValues>
        6.2632912397384644e-01 -4.6482759714126587e-01</leafValues></_>
    <_>
      <internalNodes>
        0 -1 60579 -3.1462763436138630e-03</internalNodes>
      <leafValues>
        5.5557078123092651e-01 -3.5958591103553772e-01</leafValues></_>
    <_>
      <internalNodes>
        0 -1 60832 -3.7062391638755798e-03</internalNodes>
      <leafValues>
        5.4936367273330688e-01 -3.1344348192214966e-01</leafValues></_>
    <_>
      <internalNodes>
        0 -1 36403 1.8504057079553604e-02</internalNodes>
      <leafValues>
        2.0634017884731293e-01 -8.7041866779327393e-01</leafValues></_>
    <_>
      <internalNodes>
        0 -1 63960 -4.5594051480293274e-03</internalNodes>
      <leafValues>
        5.0539857149124146e-01 -3.1174072623252869e-01</leafValues></_>
    <_>
      <internalNodes>
        0 -1 55899 -2.0077135413885117e-02</internalNodes>
      <leafValues>
        -8.9438778162002563e-01 1.8955187499523163e-01</leafValues></_>
    <_>
      <internalNodes>
        0 -1 56820 -1.0402956977486610e-02</internalNodes>
      <leafValues>
        -8.6869555711746216e-01 1.6182169318199158e-01</leafValues></_>
    <_>
      <internalNodes>
        0 -1 50845 -5.5879564024507999e-04</internalNodes>
      <leafValues>
        3.2077369093894958e-01 -4.5846316218376160e-01</leafValues></_></weakClassifiers></stage3>
</opencv_storage>
