<?xml version="1.0"?>
<opencv_storage>
<stage8>
  <maxWeakCount>22</maxWeakCount>
  <stageThreshold>-9.8182320594787598e-01</stageThreshold>
  <weakClassifiers>
    <_>
      <internalNodes>
        0 -1 53244 -3.3279322087764740e-03</internalNodes>
      <leafValues>
        6.5008026361465454e-01 6.1898212879896164e-02</leafValues></_>
    <_>
      <internalNodes>
        0 -1 60793 1.7083417624235153e-03</internalNodes>
      <leafValues>
        -2.5655099749565125e-01 3.3414497971534729e-01</leafValues></_>
    <_>
      <internalNodes>
        0 -1 35848 -3.3907061442732811e-03</internalNodes>
      <leafValues>
        -4.5966970920562744e-01 1.6701120138168335e-01</leafValues></_>
    <_>
      <internalNodes>
        0 -1 39546 4.0273470804095268e-03</internalNodes>
      <leafValues>
        -2.4714522063732147e-01 3.2253172993659973e-01</leafValues></_>
    <_>
      <internalNodes>
        0 -1 40273 7.3000751435756683e-03</internalNodes>
      <leafValues>
        -2.3285369575023651e-01 3.0755865573883057e-01</leafValues></_>
    <_>
      <internalNodes>
        0 -1 60886 -1.4199405908584595e-02</internalNodes>
      <leafValues>
        -7.3413729667663574e-01 9.1928668320178986e-02</leafValues></_>
    <_>
      <internalNodes>
        0 -1 52992 6.4468206837773323e-03</internalNodes>
      <leafValues>
        -2.7672559022903442e-01 2.3336334526538849e-01</leafValues></_>
    <_>
      <internalNodes>
        0 -1 42913 -1.2334205210208893e-02</internalNodes>
      <leafValues>
        -7.2363400459289551e-01 7.2715356945991516e-02</leafValues></_>
    <_>
      <internalNodes>
        0 -1 30121 3.0709253624081612e-03</internalNodes>
      <leafValues>
        8.3154946565628052e-02 -5.8692252635955811e-01</leafValues></_>
    <_>
      <internalNodes>
        0 -1 56406 -3.8765682838857174e-03</internalNodes>
      <leafValues>
        3.6544206738471985e-01 -1.7816627025604248e-01</leafValues></_>
    <_>
      <internalNodes>
        0 -1 69899 -1.3831377029418945e-02</internalNodes>
      <leafValues>
        -6.7764484882354736e-01 1.0080815851688385e-01</leafValues></_>
    <_>
      <internalNodes>
        0 -1 67176 2.2820200771093369e-02</internalNodes>
      <leafValues>
        8.0247595906257629e-02 -7.6920127868652344e-01</leafValues></_>
    <_>
      <internalNodes>
        0 -1 67818 -9.9891575518995523e-04</internalNodes>
      <leafValues>
        2.1929740905761719e-01 -2.8123238682746887e-01</leafValues></_>
    <_>
      <internalNodes>
        0 -1 69844 -2.4415920488536358e-03</internalNodes>
      <leafValues>
        2.8301981091499329e-01 -2.1980316936969757e-01</leafValues></_>
    <_>
      <internalNodes>
        0 -1 72473 -5.1669301465153694e-03</internalNodes>
      <leafValues>
        3.7552517652511597e-01 -1.7820833623409271e-01</leafValues></_>
    <_>
      <internalNodes>
        0 -1 72581 -3.3717472106218338e-03</internalNodes>
      <leafValues>
        3.9424312114715576e-01 -2.0105932652950287e-01</leafValues></_>
    <_>
      <internalNodes>
        0 -1 46875 4.9578584730625153e-03</internalNodes>
      <leafValues>
        8.6606539785861969e-02 -7.8144955635070801e-01</leafValues></_>
    <_>
      <internalNodes>
        0 -1 57283 3.5287491977214813e-02</internalNodes>
      <leafValues>
        7.7233940362930298e-02 -7.2768163681030273e-01</leafValues></_>
    <_>
      <internalNodes>
        0 -1 74298 4.8927729949355125e-03</internalNodes>
      <leafValues>
        -2.1296916902065277e-01 3.1786987185478210e-01</leafValues></_>
    <_>
      <internalNodes>
        0 -1 60840 -2.2996040061116219e-03</internalNodes>
      <leafValues>
        -4.4520711898803711e-01 1.4488188922405243e-01</leafValues></_>
    <_>
      <internalNodes>
        0 -1 48306 -1.1380353942513466e-02</internalNodes>
      <leafValues>
        -8.5278612375259399e-01 6.3526615500450134e-02</leafValues></_>
    <_>
      <internalNodes>
        0 -1 57597 -1.8519617151468992e-03</internalNodes>
      <leafValues>
        3.5331541299819946e-01 -1.9166705012321472e-01</leafValues></_></weakClassifiers></stage8>
</opencv_storage>
