<?xml version="1.0"?>
<opencv_storage>
<stage8>
  <maxWeakCount>51</maxWeakCount>
  <stageThreshold>-7.3521578311920166e-01</stageThreshold>
  <weakClassifiers>
    <_>
      <internalNodes>
        0 -1 105947 -1.1993411462754011e-03</internalNodes>
      <leafValues>
        4.7578346729278564e-01 6.8783067166805267e-02</leafValues></_>
    <_>
      <internalNodes>
        0 -1 83014 8.9312926866114140e-04</internalNodes>
      <leafValues>
        -2.0614100992679596e-01 2.0793712139129639e-01</leafValues></_>
    <_>
      <internalNodes>
        0 -1 82012 -3.1295935623347759e-03</internalNodes>
      <leafValues>
        2.5757813453674316e-01 -1.6338583827018738e-01</leafValues></_>
    <_>
      <internalNodes>
        0 -1 65887 2.0554011687636375e-02</internalNodes>
      <leafValues>
        -9.0601146221160889e-02 4.7645965218544006e-01</leafValues></_>
    <_>
      <internalNodes>
        0 -1 100359 -1.6779227007646114e-04</internalNodes>
      <leafValues>
        1.6712641716003418e-01 -2.3433032631874084e-01</leafValues></_>
    <_>
      <internalNodes>
        0 -1 107719 3.4385424805805087e-04</internalNodes>
      <leafValues>
        -1.8813696503639221e-01 1.9915136694908142e-01</leafValues></_>
    <_>
      <internalNodes>
        0 -1 100361 -1.7297719605267048e-03</internalNodes>
      <leafValues>
        -5.0693696737289429e-01 5.1248695701360703e-02</leafValues></_>
    <_>
      <internalNodes>
        0 -1 35715 -3.3121020533144474e-03</internalNodes>
      <leafValues>
        3.2307824492454529e-01 -1.1021199822425842e-01</leafValues></_>
    <_>
      <internalNodes>
        0 -1 33476 -9.1338127851486206e-02</internalNodes>
      <leafValues>
        -6.3645309209823608e-01 6.0260567814111710e-02</leafValues></_>
    <_>
      <internalNodes>
        0 -1 44594 3.4911474213004112e-03</internalNodes>
      <leafValues>
        -1.0862710326910019e-01 3.2068118453025818e-01</leafValues></_>
    <_>
      <internalNodes>
        0 -1 43450 8.4409210830926895e-03</internalNodes>
      <leafValues>
        5.9735730290412903e-02 -6.4395117759704590e-01</leafValues></_>
    <_>
      <internalNodes>
        0 -1 95771 1.0670345276594162e-02</internalNodes>
      <leafValues>
        2.8655532747507095e-02 -8.9248472452163696e-01</leafValues></_>
    <_>
      <internalNodes>
        0 -1 94921 1.7264552880078554e-03</internalNodes>
      <leafValues>
        -1.1941262334585190e-01 2.5989997386932373e-01</leafValues></_>
    <_>
      <internalNodes>
        0 -1 94919 -1.9873823039233685e-03</internalNodes>
      <leafValues>
        2.8713369369506836e-01 -1.0640069097280502e-01</leafValues></_>
    <_>
      <internalNodes>
        0 -1 34333 -7.0498779416084290e-02</internalNodes>
      <leafValues>
        -5.0919562578201294e-01 5.6424167007207870e-02</leafValues></_>
    <_>
      <internalNodes>
        0 -1 105473 -2.4707957636564970e-03</internalNodes>
      <leafValues>
        -3.8215723633766174e-01 6.8633668124675751e-02</leafValues></_>
    <_>
      <internalNodes>
        0 -1 59635 2.7644303627312183e-03</internalNodes>
      <leafValues>
        5.0794959068298340e-02 -5.2303099632263184e-01</leafValues></_>
    <_>
      <internalNodes>
        0 -1 22922 -2.7065780013799667e-03</internalNodes>
      <leafValues>
        2.3395426571369171e-01 -1.2550941109657288e-01</leafValues></_>
    <_>
      <internalNodes>
        0 -1 128757 5.2195419557392597e-03</internalNodes>
      <leafValues>
        -8.6986087262630463e-02 3.4057986736297607e-01</leafValues></_>
    <_>
      <internalNodes>
        0 -1 80514 -6.8701446056365967e-02</internalNodes>
      <leafValues>
        -3.2198980450630188e-01 8.4463216364383698e-02</leafValues></_>
    <_>
      <internalNodes>
        0 -1 94393 -6.8177480716258287e-04</internalNodes>
      <leafValues>
        1.3581264019012451e-01 -2.0557071268558502e-01</leafValues></_>
    <_>
      <internalNodes>
        0 -1 94396 2.4071545340120792e-03</internalNodes>
      <leafValues>
        7.3729269206523895e-02 -4.0844225883483887e-01</leafValues></_>
    <_>
      <internalNodes>
        0 -1 34567 5.1902541890740395e-03</internalNodes>
      <leafValues>
        -9.2944003641605377e-02 3.4091979265213013e-01</leafValues></_>
    <_>
      <internalNodes>
        0 -1 112002 2.9328912496566772e-02</internalNodes>
      <leafValues>
        5.8338362723588943e-02 -4.6684035658836365e-01</leafValues></_>
    <_>
      <internalNodes>
        0 -1 111077 -4.0406398475170135e-03</internalNodes>
      <leafValues>
        2.8003647923469543e-01 -9.8766654729843140e-02</leafValues></_>
    <_>
      <internalNodes>
        0 -1 5329 -1.1051844805479050e-02</internalNodes>
      <leafValues>
        2.7356562018394470e-01 -1.0349732637405396e-01</leafValues></_>
    <_>
      <internalNodes>
        0 -1 4580 1.4992320910096169e-02</internalNodes>
      <leafValues>
        -1.0368457436561584e-01 3.2227200269699097e-01</leafValues></_>
    <_>
      <internalNodes>
        0 -1 96846 2.5949086993932724e-03</internalNodes>
      <leafValues>
        -9.0672515332698822e-02 2.9113429784774780e-01</leafValues></_>
    <_>
      <internalNodes>
        0 -1 107050 -1.6228239983320236e-03</internalNodes>
      <leafValues>
        -3.0773395299911499e-01 1.0639010369777679e-01</leafValues></_>
    <_>
      <internalNodes>
        0 -1 44193 -7.3235705494880676e-03</internalNodes>
      <leafValues>
        3.5421463847160339e-01 -8.4004051983356476e-02</leafValues></_>
    <_>
      <internalNodes>
        0 -1 89608 5.2107968367636204e-03</internalNodes>
      <leafValues>
        -9.3697756528854370e-02 3.0434617400169373e-01</leafValues></_>
    <_>
      <internalNodes>
        0 -1 87753 -1.0458433534950018e-03</internalNodes>
      <leafValues>
        1.7560251057147980e-01 -1.5754199028015137e-01</leafValues></_>
    <_>
      <internalNodes>
        0 -1 111443 -1.0125261032953858e-03</internalNodes>
      <leafValues>
        1.6661103069782257e-01 -1.6877162456512451e-01</leafValues></_>
    <_>
      <internalNodes>
        0 -1 108327 -6.0539254918694496e-03</internalNodes>
      <leafValues>
        3.3859741687774658e-01 -8.4530442953109741e-02</leafValues></_>
    <_>
      <internalNodes>
        0 -1 99972 -1.2059238739311695e-02</internalNodes>
      <leafValues>
        -3.7173044681549072e-01 7.9979211091995239e-02</leafValues></_>
    <_>
      <internalNodes>
        0 -1 116167 -9.4023551791906357e-03</internalNodes>
      <leafValues>
        -6.9609886407852173e-01 3.6550134420394897e-02</leafValues></_>
    <_>
      <internalNodes>
        0 -1 100018 -5.2409940399229527e-03</internalNodes>
      <leafValues>
        3.7801653146743774e-01 -7.1842014789581299e-02</leafValues></_>
    <_>
      <internalNodes>
        0 -1 111420 2.1144736092537642e-03</internalNodes>
      <leafValues>
        -1.0492062568664551e-01 2.5385415554046631e-01</leafValues></_>
    <_>
      <internalNodes>
        0 -1 115775 -4.8057356616482139e-04</internalNodes>
      <leafValues>
        1.7658238112926483e-01 -1.5483154356479645e-01</leafValues></_>
    <_>
      <internalNodes>
        0 -1 88641 -4.0945672662928700e-04</internalNodes>
      <leafValues>
        1.7661094665527344e-01 -1.5684071183204651e-01</leafValues></_>
    <_>
      <internalNodes>
        0 -1 81465 4.0274518541991711e-03</internalNodes>
      <leafValues>
        -8.1293813884258270e-02 3.8591334223747253e-01</leafValues></_>
    <_>
      <internalNodes>
        0 -1 107953 4.9434807151556015e-03</internalNodes>
      <leafValues>
        3.2772265374660492e-02 -8.4542691707611084e-01</leafValues></_>
    <_>
      <internalNodes>
        0 -1 105892 -3.4859636798501015e-03</internalNodes>
      <leafValues>
        -6.0217487812042236e-01 3.4375041723251343e-02</leafValues></_>
    <_>
      <internalNodes>
        0 -1 13135 6.0022119432687759e-03</internalNodes>
      <leafValues>
        -6.7855179309844971e-02 4.2073935270309448e-01</leafValues></_>
    <_>
      <internalNodes>
        0 -1 94395 -5.7205127086490393e-04</internalNodes>
      <leafValues>
        2.0088408887386322e-01 -1.5003509819507599e-01</leafValues></_>
    <_>
      <internalNodes>
        0 -1 74384 -3.0114245600998402e-03</internalNodes>
      <leafValues>
        1.9796645641326904e-01 -1.3314859569072723e-01</leafValues></_>
    <_>
      <internalNodes>
        0 -1 16700 9.4346795231103897e-03</internalNodes>
      <leafValues>
        4.8388604074716568e-02 -5.3557687997817993e-01</leafValues></_>
    <_>
      <internalNodes>
        0 -1 75401 -6.7666952963918447e-04</internalNodes>
      <leafValues>
        1.8698230385780334e-01 -1.4484256505966187e-01</leafValues></_>
    <_>
      <internalNodes>
        0 -1 102566 2.8408837970346212e-03</internalNodes>
      <leafValues>
        5.2102696150541306e-02 -5.1943683624267578e-01</leafValues></_>
    <_>
      <internalNodes>
        0 -1 123469 -7.7683972194790840e-03</internalNodes>
      <leafValues>
        -3.9164045453071594e-01 6.1216540634632111e-02</leafValues></_>
    <_>
      <internalNodes>
        0 -1 81687 4.1108503937721252e-02</internalNodes>
      <leafValues>
        4.7559645026922226e-02 -5.7348245382308960e-01</leafValues></_></weakClassifiers></stage8>
</opencv_storage>
