<?xml version="1.0"?>
<opencv_storage>
<stage1>
  <maxWeakCount>11</maxWeakCount>
  <stageThreshold>-1.0634496212005615e+00</stageThreshold>
  <weakClassifiers>
    <_>
      <internalNodes>
        0 -1 51436 -3.4888163208961487e-03</internalNodes>
      <leafValues>
        5.8768010139465332e-01 -4.1193595528602600e-01</leafValues></_>
    <_>
      <internalNodes>
        0 -1 32168 -1.8945474177598953e-02</internalNodes>
      <leafValues>
        -8.9676827192306519e-01 2.5017228722572327e-01</leafValues></_>
    <_>
      <internalNodes>
        0 -1 55136 -6.2735187821090221e-03</internalNodes>
      <leafValues>
        6.1154651641845703e-01 -3.1658574938774109e-01</leafValues></_>
    <_>
      <internalNodes>
        0 -1 37892 1.5621584840118885e-02</internalNodes>
      <leafValues>
        1.9683879613876343e-01 -9.1284483671188354e-01</leafValues></_>
    <_>
      <internalNodes>
        0 -1 56736 -3.3532124944031239e-03</internalNodes>
      <leafValues>
        3.5434868931770325e-01 -4.3477991223335266e-01</leafValues></_>
    <_>
      <internalNodes>
        0 -1 53478 -3.6006933078169823e-03</internalNodes>
      <leafValues>
        5.4339367151260376e-01 -2.5645893812179565e-01</leafValues></_>
    <_>
      <internalNodes>
        0 -1 53209 -2.4302359670400620e-03</internalNodes>
      <leafValues>
        5.2139717340469360e-01 -2.6642644405364990e-01</leafValues></_>
    <_>
      <internalNodes>
        0 -1 37550 -2.2063400596380234e-02</internalNodes>
      <leafValues>
        -8.0906921625137329e-01 1.7707431316375732e-01</leafValues></_>
    <_>
      <internalNodes>
        0 -1 56748 -1.2597078457474709e-02</internalNodes>
      <leafValues>
        -8.1703019142150879e-01 1.3122545182704926e-01</leafValues></_>
    <_>
      <internalNodes>
        0 -1 52933 -1.4152601361274719e-03</internalNodes>
      <leafValues>
        4.6095043420791626e-01 -3.7092012166976929e-01</leafValues></_>
    <_>
      <internalNodes>
        0 -1 52157 -2.3340679705142975e-02</internalNodes>
      <leafValues>
        -7.0337915420532227e-01 2.3834669589996338e-01</leafValues></_></weakClassifiers></stage1>
</opencv_storage>
