<?xml version="1.0"?>
<opencv_storage>
<stage8>
  <maxWeakCount>18</maxWeakCount>
  <stageThreshold>-9.3603640794754028e-01</stageThreshold>
  <weakClassifiers>
    <_>
      <internalNodes>
        0 -1 46750 8.8222045451402664e-03</internalNodes>
      <leafValues>
        4.5641025900840759e-01 -4.6666666865348816e-01</leafValues></_>
    <_>
      <internalNodes>
        0 -1 61817 2.7466029860079288e-03</internalNodes>
      <leafValues>
        -2.4022045731544495e-01 4.3842396140098572e-01</leafValues></_>
    <_>
      <internalNodes>
        0 -1 69844 -3.8423484656959772e-03</internalNodes>
      <leafValues>
        3.8315269351005554e-01 -2.7163559198379517e-01</leafValues></_>
    <_>
      <internalNodes>
        0 -1 64149 -2.4136290885508060e-03</internalNodes>
      <leafValues>
        3.3650198578834534e-01 -3.1955423951148987e-01</leafValues></_>
    <_>
      <internalNodes>
        0 -1 51485 -8.4164775907993317e-03</internalNodes>
      <leafValues>
        -5.8660560846328735e-01 1.8068845570087433e-01</leafValues></_>
    <_>
      <internalNodes>
        0 -1 46991 -7.1050394326448441e-03</internalNodes>
      <leafValues>
        -8.1487715244293213e-01 1.0659462213516235e-01</leafValues></_>
    <_>
      <internalNodes>
        0 -1 67493 -2.9603471048176289e-03</internalNodes>
      <leafValues>
        3.8562431931495667e-01 -2.8077372908592224e-01</leafValues></_>
    <_>
      <internalNodes>
        0 -1 67037 -1.9247028976678848e-03</internalNodes>
      <leafValues>
        3.2223740220069885e-01 -3.0196145176887512e-01</leafValues></_>
    <_>
      <internalNodes>
        0 -1 70021 -3.9377207867801189e-03</internalNodes>
      <leafValues>
        4.2929968237876892e-01 -1.9200120866298676e-01</leafValues></_>
    <_>
      <internalNodes>
        0 -1 66858 -3.0138622969388962e-03</internalNodes>
      <leafValues>
        3.1927442550659180e-01 -3.1966716051101685e-01</leafValues></_>
    <_>
      <internalNodes>
        0 -1 53359 -2.2723017260432243e-02</internalNodes>
      <leafValues>
        -6.8842554092407227e-01 1.5258850157260895e-01</leafValues></_>
    <_>
      <internalNodes>
        0 -1 20363 -4.5796972699463367e-03</internalNodes>
      <leafValues>
        3.2283097505569458e-01 -2.8368481993675232e-01</leafValues></_>
    <_>
      <internalNodes>
        0 -1 76249 -1.7820309847593307e-02</internalNodes>
      <leafValues>
        5.3114575147628784e-01 -1.5039943158626556e-01</leafValues></_>
    <_>
      <internalNodes>
        0 -1 65330 -2.5238369125872850e-03</internalNodes>
      <leafValues>
        4.0712475776672363e-01 -1.9655409455299377e-01</leafValues></_>
    <_>
      <internalNodes>
        0 -1 75988 1.6214456409215927e-02</internalNodes>
      <leafValues>
        -1.6747644543647766e-01 5.0468367338180542e-01</leafValues></_>
    <_>
      <internalNodes>
        0 -1 44377 1.3963501900434494e-02</internalNodes>
      <leafValues>
        1.2980371713638306e-01 -7.1542412042617798e-01</leafValues></_>
    <_>
      <internalNodes>
        0 -1 49059 -1.1110885068774223e-02</internalNodes>
      <leafValues>
        -7.2261792421340942e-01 9.7643069922924042e-02</leafValues></_>
    <_>
      <internalNodes>
        0 -1 63921 -1.7901254817843437e-02</internalNodes>
      <leafValues>
        -8.0606269836425781e-01 7.4116349220275879e-02</leafValues></_></weakClassifiers></stage8>
</opencv_storage>
