<?xml version="1.0"?>
<opencv_storage>
<stage4>
  <maxWeakCount>20</maxWeakCount>
  <stageThreshold>-1.0239931344985962e+00</stageThreshold>
  <weakClassifiers>
    <_>
      <internalNodes>
        0 -1 55787 3.9979568682610989e-03</internalNodes>
      <leafValues>
        -6.6140174865722656e-02 5.7320690155029297e-01</leafValues></_>
    <_>
      <internalNodes>
        0 -1 51746 -1.3287220150232315e-02</internalNodes>
      <leafValues>
        -7.8325617313385010e-01 1.7267294228076935e-01</leafValues></_>
    <_>
      <internalNodes>
        0 -1 48549 3.6038104444742203e-03</internalNodes>
      <leafValues>
        -3.4633523225784302e-01 2.9827037453651428e-01</leafValues></_>
    <_>
      <internalNodes>
        0 -1 40497 9.6470164135098457e-03</internalNodes>
      <leafValues>
        -1.7249116301536560e-01 5.8915412425994873e-01</leafValues></_>
    <_>
      <internalNodes>
        0 -1 72214 -1.3792489189654589e-03</internalNodes>
      <leafValues>
        3.2552969455718994e-01 -3.4938183426856995e-01</leafValues></_>
    <_>
      <internalNodes>
        0 -1 66630 -6.9548226892948151e-03</internalNodes>
      <leafValues>
        -5.6197655200958252e-01 1.8706126511096954e-01</leafValues></_>
    <_>
      <internalNodes>
        0 -1 59385 1.3321646489202976e-02</internalNodes>
      <leafValues>
        1.5054689347743988e-01 -6.2908983230590820e-01</leafValues></_>
    <_>
      <internalNodes>
        0 -1 74365 -1.3194081839174032e-03</internalNodes>
      <leafValues>
        2.5819745659828186e-01 -3.1517836451530457e-01</leafValues></_>
    <_>
      <internalNodes>
        0 -1 72032 -2.1650288254022598e-03</internalNodes>
      <leafValues>
        4.1629436612129211e-01 -2.1731238067150116e-01</leafValues></_>
    <_>
      <internalNodes>
        0 -1 67809 -1.7945067957043648e-03</internalNodes>
      <leafValues>
        3.9004710316658020e-01 -2.2726026177406311e-01</leafValues></_>
    <_>
      <internalNodes>
        0 -1 52262 2.2856228053569794e-02</internalNodes>
      <leafValues>
        1.1674684286117554e-01 -6.8425035476684570e-01</leafValues></_>
    <_>
      <internalNodes>
        0 -1 46938 7.2520999237895012e-03</internalNodes>
      <leafValues>
        1.0890702158212662e-01 -6.5681272745132446e-01</leafValues></_>
    <_>
      <internalNodes>
        0 -1 68101 8.4321672329679132e-04</internalNodes>
      <leafValues>
        -2.2808045148849487e-01 3.2519030570983887e-01</leafValues></_>
    <_>
      <internalNodes>
        0 -1 67673 -3.9915898814797401e-03</internalNodes>
      <leafValues>
        3.9650490880012512e-01 -2.2546692192554474e-01</leafValues></_>
    <_>
      <internalNodes>
        0 -1 73173 -9.4227772206068039e-04</internalNodes>
      <leafValues>
        3.1087395548820496e-01 -2.3852577805519104e-01</leafValues></_>
    <_>
      <internalNodes>
        0 -1 67141 -8.9253317564725876e-03</internalNodes>
      <leafValues>
        -6.2753510475158691e-01 1.0317640006542206e-01</leafValues></_>
    <_>
      <internalNodes>
        0 -1 24110 -2.7208542451262474e-03</internalNodes>
      <leafValues>
        2.9405760765075684e-01 -2.4081325531005859e-01</leafValues></_>
    <_>
      <internalNodes>
        0 -1 70143 -1.4839051291346550e-03</internalNodes>
      <leafValues>
        3.5603529214859009e-01 -1.8809248507022858e-01</leafValues></_>
    <_>
      <internalNodes>
        0 -1 72855 -1.6380129382014275e-03</internalNodes>
      <leafValues>
        3.0613005161285400e-01 -2.4034383893013000e-01</leafValues></_>
    <_>
      <internalNodes>
        0 -1 76066 -2.2332188673317432e-03</internalNodes>
      <leafValues>
        4.1585394740104675e-01 -1.8383507430553436e-01</leafValues></_></weakClassifiers></stage4>
</opencv_storage>
