<?xml version="1.0"?>
<opencv_storage>
<stage1>
  <maxWeakCount>6</maxWeakCount>
  <stageThreshold>-5.7996243238449097e-01</stageThreshold>
  <weakClassifiers>
    <_>
      <internalNodes>
        0 -1 56690 -2.0349449478089809e-03</internalNodes>
      <leafValues>
        7.6636713743209839e-01 -2.5744307041168213e-01</leafValues></_>
    <_>
      <internalNodes>
        0 -1 56912 -1.6237939707934856e-03</internalNodes>
      <leafValues>
        6.7728263139724731e-01 -2.6598897576332092e-01</leafValues></_>
    <_>
      <internalNodes>
        0 -1 69795 -1.3945137616246939e-03</internalNodes>
      <leafValues>
        5.4596942663192749e-01 -3.4558486938476562e-01</leafValues></_>
    <_>
      <internalNodes>
        0 -1 67959 -1.9834910053759813e-03</internalNodes>
      <leafValues>
        5.3417325019836426e-01 -3.8094022870063782e-01</leafValues></_>
    <_>
      <internalNodes>
        0 -1 64766 -4.6407971531152725e-03</internalNodes>
      <leafValues>
        6.7515045404434204e-01 -2.9138347506523132e-01</leafValues></_>
    <_>
      <internalNodes>
        0 -1 42400 1.2971594929695129e-02</internalNodes>
      <leafValues>
        2.2226877510547638e-01 -8.9700686931610107e-01</leafValues></_></weakClassifiers></stage1>
</opencv_storage>
