<?xml version="1.0"?>
<opencv_storage>
<stage6>
  <maxWeakCount>10</maxWeakCount>
  <stageThreshold>-8.9349490404129028e-01</stageThreshold>
  <weakClassifiers>
    <_>
      <internalNodes>
        0 -1 52264 1.4120778068900108e-02</internalNodes>
      <leafValues>
        5.0173312425613403e-01 -6.5816324949264526e-01</leafValues></_>
    <_>
      <internalNodes>
        0 -1 41935 1.3680955395102501e-02</internalNodes>
      <leafValues>
        2.1248279511928558e-01 -7.9035246372222900e-01</leafValues></_>
    <_>
      <internalNodes>
        0 -1 51314 -3.0600018799304962e-03</internalNodes>
      <leafValues>
        3.6172547936439514e-01 -4.5643144845962524e-01</leafValues></_>
    <_>
      <internalNodes>
        0 -1 42284 -9.7867790609598160e-03</internalNodes>
      <leafValues>
        -8.7211883068084717e-01 1.8087382614612579e-01</leafValues></_>
    <_>
      <internalNodes>
        0 -1 52170 -1.4555040746927261e-02</internalNodes>
      <leafValues>
        -8.9368277788162231e-01 1.1983613669872284e-01</leafValues></_>
    <_>
      <internalNodes>
        0 -1 34644 1.0979762300848961e-02</internalNodes>
      <leafValues>
        -2.6962077617645264e-01 5.4267609119415283e-01</leafValues></_>
    <_>
      <internalNodes>
        0 -1 60895 1.3306884095072746e-02</internalNodes>
      <leafValues>
        1.3111053407192230e-01 -8.8069838285446167e-01</leafValues></_>
    <_>
      <internalNodes>
        0 -1 55197 -6.9656036794185638e-03</internalNodes>
      <leafValues>
        5.0412607192993164e-01 -2.6954895257949829e-01</leafValues></_>
    <_>
      <internalNodes>
        0 -1 28897 -8.3210952579975128e-03</internalNodes>
      <leafValues>
        6.0170781612396240e-01 -2.3548039793968201e-01</leafValues></_>
    <_>
      <internalNodes>
        0 -1 69178 -1.4954532962292433e-03</internalNodes>
      <leafValues>
        4.1937911510467529e-01 -3.3548009395599365e-01</leafValues></_></weakClassifiers></stage6>
</opencv_storage>
