<?xml version="1.0"?>
<opencv_storage>
<stage2>
  <maxWeakCount>6</maxWeakCount>
  <stageThreshold>-7.0841968059539795e-01</stageThreshold>
  <weakClassifiers>
    <_>
      <internalNodes>
        0 -1 30994 -2.3717973381280899e-02</internalNodes>
      <leafValues>
        -8.1140351295471191e-01 5.6595367193222046e-01</leafValues></_>
    <_>
      <internalNodes>
        0 -1 57392 -2.1341661922633648e-03</internalNodes>
      <leafValues>
        6.0276263952255249e-01 -3.9533782005310059e-01</leafValues></_>
    <_>
      <internalNodes>
        0 -1 57593 -1.7999820411205292e-03</internalNodes>
      <leafValues>
        5.3186625242233276e-01 -4.3368533253669739e-01</leafValues></_>
    <_>
      <internalNodes>
        0 -1 55431 -2.3737056180834770e-03</internalNodes>
      <leafValues>
        5.3363871574401855e-01 -3.6466777324676514e-01</leafValues></_>
    <_>
      <internalNodes>
        0 -1 56573 5.6132972240447998e-03</internalNodes>
      <leafValues>
        1.9294457137584686e-01 -8.3849918842315674e-01</leafValues></_>
    <_>
      <internalNodes>
        0 -1 56252 -1.3436425477266312e-02</internalNodes>
      <leafValues>
        -8.3401900529861450e-01 2.0542368292808533e-01</leafValues></_></weakClassifiers></stage2>
</opencv_storage>
