<?xml version="1.0"?>
<opencv_storage>
<stage0>
  <maxWeakCount>6</maxWeakCount>
  <stageThreshold>-9.6463155746459961e-01</stageThreshold>
  <weakClassifiers>
    <_>
      <internalNodes>
        0 -1 55837 -2.8826394118368626e-03</internalNodes>
      <leafValues>
        7.4219655990600586e-01 -3.9587628841400146e-01</leafValues></_>
    <_>
      <internalNodes>
        0 -1 42005 7.6142423786222935e-03</internalNodes>
      <leafValues>
        3.4824880957603455e-01 -8.9479690790176392e-01</leafValues></_>
    <_>
      <internalNodes>
        0 -1 36987 -1.9654069095849991e-02</internalNodes>
      <leafValues>
        -8.8146680593490601e-01 2.7000766992568970e-01</leafValues></_>
    <_>
      <internalNodes>
        0 -1 59375 -2.7794851921498775e-03</internalNodes>
      <leafValues>
        5.3319829702377319e-01 -4.8252749443054199e-01</leafValues></_>
    <_>
      <internalNodes>
        0 -1 47299 -3.5622445866465569e-03</internalNodes>
      <leafValues>
        6.0691255331039429e-01 -3.6596977710723877e-01</leafValues></_>
    <_>
      <internalNodes>
        0 -1 47965 -3.3105162438005209e-03</internalNodes>
      <leafValues>
        5.0439071655273438e-01 -3.3851447701454163e-01</leafValues></_></weakClassifiers></stage0>
</opencv_storage>
