<?xml version="1.0"?>
<opencv_storage>
<stage2>
  <maxWeakCount>9</maxWeakCount>
  <stageThreshold>-8.6647319793701172e-01</stageThreshold>
  <weakClassifiers>
    <_>
      <internalNodes>
        0 -1 55782 -2.4279181379824877e-03</internalNodes>
      <leafValues>
        6.3754045963287354e-01 -3.3333334326744080e-01</leafValues></_>
    <_>
      <internalNodes>
        0 -1 52582 -1.4964946545660496e-02</internalNodes>
      <leafValues>
        -9.1723841428756714e-01 2.7867761254310608e-01</leafValues></_>
    <_>
      <internalNodes>
        0 -1 60633 7.0741130039095879e-03</internalNodes>
      <leafValues>
        2.0277699828147888e-01 -8.6809390783309937e-01</leafValues></_>
    <_>
      <internalNodes>
        0 -1 55073 7.3160198517143726e-03</internalNodes>
      <leafValues>
        -3.3448383212089539e-01 6.4650249481201172e-01</leafValues></_>
    <_>
      <internalNodes>
        0 -1 52117 -1.4205670915544033e-02</internalNodes>
      <leafValues>
        -7.9731708765029907e-01 2.3998466134071350e-01</leafValues></_>
    <_>
      <internalNodes>
        0 -1 53286 8.5037536919116974e-03</internalNodes>
      <leafValues>
        1.7538425326347351e-01 -8.9626604318618774e-01</leafValues></_>
    <_>
      <internalNodes>
        0 -1 36759 -4.8069357872009277e-03</internalNodes>
      <leafValues>
        4.5461565256118774e-01 -3.5889503359794617e-01</leafValues></_>
    <_>
      <internalNodes>
        0 -1 52874 -1.3196993619203568e-02</internalNodes>
      <leafValues>
        -7.2104108333587646e-01 2.0775352418422699e-01</leafValues></_>
    <_>
      <internalNodes>
        0 -1 56212 -1.2227684259414673e-02</internalNodes>
      <leafValues>
        -6.8697786331176758e-01 2.0996232330799103e-01</leafValues></_></weakClassifiers></stage2>
</opencv_storage>
