<?xml version="1.0"?>
<opencv_storage>
<stage7>
  <maxWeakCount>18</maxWeakCount>
  <stageThreshold>-1.0510164499282837e+00</stageThreshold>
  <weakClassifiers>
    <_>
      <internalNodes>
        0 -1 54111 -5.1190722733736038e-03</internalNodes>
      <leafValues>
        6.0223740339279175e-01 -6.3244730234146118e-02</leafValues></_>
    <_>
      <internalNodes>
        0 -1 36218 -2.1259493660181761e-03</internalNodes>
      <leafValues>
        4.6688795089721680e-01 -2.4161410331726074e-01</leafValues></_>
    <_>
      <internalNodes>
        0 -1 49298 1.1131394654512405e-02</internalNodes>
      <leafValues>
        1.7104339599609375e-01 -6.9976931810379028e-01</leafValues></_>
    <_>
      <internalNodes>
        0 -1 50710 -1.1832119897007942e-02</internalNodes>
      <leafValues>
        6.0351073741912842e-01 -2.0343954861164093e-01</leafValues></_>
    <_>
      <internalNodes>
        0 -1 72032 -1.8605013610795140e-03</internalNodes>
      <leafValues>
        3.6464548110961914e-01 -2.9263839125633240e-01</leafValues></_>
    <_>
      <internalNodes>
        0 -1 53737 -5.4755350574851036e-03</internalNodes>
      <leafValues>
        -5.7636153697967529e-01 1.6798937320709229e-01</leafValues></_>
    <_>
      <internalNodes>
        0 -1 72214 -1.8616870511323214e-03</internalNodes>
      <leafValues>
        3.4077253937721252e-01 -2.7957487106323242e-01</leafValues></_>
    <_>
      <internalNodes>
        0 -1 4500 4.6536426991224289e-02</internalNodes>
      <leafValues>
        -1.7056304216384888e-01 4.9766132235527039e-01</leafValues></_>
    <_>
      <internalNodes>
        0 -1 44377 7.9840337857604027e-03</internalNodes>
      <leafValues>
        1.2849040329456329e-01 -6.6057860851287842e-01</leafValues></_>
    <_>
      <internalNodes>
        0 -1 30961 -3.1268969178199768e-02</internalNodes>
      <leafValues>
        -7.9095798730850220e-01 9.1595388948917389e-02</leafValues></_>
    <_>
      <internalNodes>
        0 -1 60308 2.1958793513476849e-03</internalNodes>
      <leafValues>
        -2.7183505892753601e-01 3.3571249246597290e-01</leafValues></_>
    <_>
      <internalNodes>
        0 -1 31738 3.1724989414215088e-02</internalNodes>
      <leafValues>
        1.4209769666194916e-01 -7.0670801401138306e-01</leafValues></_>
    <_>
      <internalNodes>
        0 -1 51409 4.4531479477882385e-02</internalNodes>
      <leafValues>
        7.6124101877212524e-02 -9.3635576963424683e-01</leafValues></_>
    <_>
      <internalNodes>
        0 -1 36661 -8.1395858433097601e-04</internalNodes>
      <leafValues>
        2.6837265491485596e-01 -3.0881884694099426e-01</leafValues></_>
    <_>
      <internalNodes>
        0 -1 4450 -1.8703080713748932e-02</internalNodes>
      <leafValues>
        5.6757366657257080e-01 -1.5262551605701447e-01</leafValues></_>
    <_>
      <internalNodes>
        0 -1 72428 -2.6446494739502668e-03</internalNodes>
      <leafValues>
        3.6607244610786438e-01 -2.2575192153453827e-01</leafValues></_>
    <_>
      <internalNodes>
        0 -1 38490 6.1163594946265221e-03</internalNodes>
      <leafValues>
        -1.5661902725696564e-01 5.5619555711746216e-01</leafValues></_>
    <_>
      <internalNodes>
        0 -1 67685 1.0436858981847763e-02</internalNodes>
      <leafValues>
        1.0390799492597580e-01 -8.1837832927703857e-01</leafValues></_></weakClassifiers></stage7>
</opencv_storage>
