<?xml version="1.0"?>
<opencv_storage>
<stage1>
  <maxWeakCount>11</maxWeakCount>
  <stageThreshold>-1.0934742689132690e+00</stageThreshold>
  <weakClassifiers>
    <_>
      <internalNodes>
        0 -1 55727 -8.9602998923510313e-04</internalNodes>
      <leafValues>
        6.1634880304336548e-01 -2.6705202460289001e-01</leafValues></_>
    <_>
      <internalNodes>
        0 -1 34867 -6.5298285335302353e-03</internalNodes>
      <leafValues>
        6.9249016046524048e-01 -2.3946861922740936e-01</leafValues></_>
    <_>
      <internalNodes>
        0 -1 55491 -5.7668881490826607e-03</internalNodes>
      <leafValues>
        5.6166595220565796e-01 -2.8391492366790771e-01</leafValues></_>
    <_>
      <internalNodes>
        0 -1 67086 -2.8877796139568090e-03</internalNodes>
      <leafValues>
        4.6569180488586426e-01 -3.8126707077026367e-01</leafValues></_>
    <_>
      <internalNodes>
        0 -1 41921 1.7966086044907570e-02</internalNodes>
      <leafValues>
        1.8445384502410889e-01 -8.3182096481323242e-01</leafValues></_>
    <_>
      <internalNodes>
        0 -1 55940 3.2153353095054626e-02</internalNodes>
      <leafValues>
        1.3281862437725067e-01 -8.8446545600891113e-01</leafValues></_>
    <_>
      <internalNodes>
        0 -1 69899 -6.0757389292120934e-03</internalNodes>
      <leafValues>
        -7.2369652986526489e-01 1.7147307097911835e-01</leafValues></_>
    <_>
      <internalNodes>
        0 -1 36437 -2.4749275296926498e-02</internalNodes>
      <leafValues>
        -8.5718464851379395e-01 1.2440628558397293e-01</leafValues></_>
    <_>
      <internalNodes>
        0 -1 40914 -3.5189320333302021e-03</internalNodes>
      <leafValues>
        4.0204128623008728e-01 -2.9401880502700806e-01</leafValues></_>
    <_>
      <internalNodes>
        0 -1 49849 -4.3006399646401405e-03</internalNodes>
      <leafValues>
        3.7344288825988770e-01 -2.9461389780044556e-01</leafValues></_>
    <_>
      <internalNodes>
        0 -1 56791 1.8632862716913223e-02</internalNodes>
      <leafValues>
        1.5189944207668304e-01 -6.6707342863082886e-01</leafValues></_></weakClassifiers></stage1>
</opencv_storage>
