<?xml version="1.0"?>
<opencv_storage>
<stage4>
  <maxWeakCount>44</maxWeakCount>
  <stageThreshold>-8.1862318515777588e-01</stageThreshold>
  <weakClassifiers>
    <_>
      <internalNodes>
        0 -1 57813 1.1702920310199261e-03</internalNodes>
      <leafValues>
        9.1497972607612610e-02 5.3720134496688843e-01</leafValues></_>
    <_>
      <internalNodes>
        0 -1 29695 1.6819128766655922e-02</internalNodes>
      <leafValues>
        -1.9177299737930298e-01 2.6874706149101257e-01</leafValues></_>
    <_>
      <internalNodes>
        0 -1 30408 -4.2682336643338203e-03</internalNodes>
      <leafValues>
        2.5368794798851013e-01 -1.6931845247745514e-01</leafValues></_>
    <_>
      <internalNodes>
        0 -1 47348 -5.1576020196080208e-03</internalNodes>
      <leafValues>
        3.1097894906997681e-01 -1.2422267347574234e-01</leafValues></_>
    <_>
      <internalNodes>
        0 -1 7833 -3.7499211728572845e-02</internalNodes>
      <leafValues>
        4.1845798492431641e-01 -1.2227223068475723e-01</leafValues></_>
    <_>
      <internalNodes>
        0 -1 16146 3.9379717782139778e-03</internalNodes>
      <leafValues>
        -1.3438856601715088e-01 3.2483607530593872e-01</leafValues></_>
    <_>
      <internalNodes>
        0 -1 66622 -2.5036069564521313e-03</internalNodes>
      <leafValues>
        2.5335127115249634e-01 -1.4488694071769714e-01</leafValues></_>
    <_>
      <internalNodes>
        0 -1 63096 -1.7880732193589211e-03</internalNodes>
      <leafValues>
        2.0641496777534485e-01 -1.8312099575996399e-01</leafValues></_>
    <_>
      <internalNodes>
        0 -1 61626 4.7046598047018051e-03</internalNodes>
      <leafValues>
        3.4962948411703110e-02 -7.7072590589523315e-01</leafValues></_>
    <_>
      <internalNodes>
        0 -1 44316 2.1667270921170712e-03</internalNodes>
      <leafValues>
        -1.3587528467178345e-01 2.5477293133735657e-01</leafValues></_>
    <_>
      <internalNodes>
        0 -1 35772 -1.2439871206879616e-02</internalNodes>
      <leafValues>
        -7.8668713569641113e-01 4.2410615831613541e-02</leafValues></_>
    <_>
      <internalNodes>
        0 -1 70483 2.7111128438264132e-03</internalNodes>
      <leafValues>
        -1.7609182000160217e-01 1.9640591740608215e-01</leafValues></_>
    <_>
      <internalNodes>
        0 -1 55373 -5.9002928901463747e-04</internalNodes>
      <leafValues>
        1.5959058701992035e-01 -2.2989268600940704e-01</leafValues></_>
    <_>
      <internalNodes>
        0 -1 66910 -2.6182392612099648e-03</internalNodes>
      <leafValues>
        2.3833267390727997e-01 -1.3901402056217194e-01</leafValues></_>
    <_>
      <internalNodes>
        0 -1 41749 -4.4697793200612068e-03</internalNodes>
      <leafValues>
        -6.2271314859390259e-01 5.1821053028106689e-02</leafValues></_>
    <_>
      <internalNodes>
        0 -1 43575 1.2481419835239649e-03</internalNodes>
      <leafValues>
        -1.3653941452503204e-01 2.6333901286125183e-01</leafValues></_>
    <_>
      <internalNodes>
        0 -1 46872 -4.6608005650341511e-03</internalNodes>
      <leafValues>
        -7.0119047164916992e-01 5.7569969445466995e-02</leafValues></_>
    <_>
      <internalNodes>
        0 -1 44094 2.7829320169985294e-03</internalNodes>
      <leafValues>
        -1.2308739870786667e-01 3.0043768882751465e-01</leafValues></_>
    <_>
      <internalNodes>
        0 -1 18210 -5.7562042027711868e-02</internalNodes>
      <leafValues>
        -4.4561883807182312e-01 8.2348085939884186e-02</leafValues></_>
    <_>
      <internalNodes>
        0 -1 37069 -6.1789238825440407e-03</internalNodes>
      <leafValues>
        -7.0353686809539795e-01 4.6638526022434235e-02</leafValues></_>
    <_>
      <internalNodes>
        0 -1 29333 6.5122665837407112e-03</internalNodes>
      <leafValues>
        -1.4414539933204651e-01 2.3960246145725250e-01</leafValues></_>
    <_>
      <internalNodes>
        0 -1 40979 -2.3610010743141174e-02</internalNodes>
      <leafValues>
        4.2687866091728210e-01 -8.8274642825126648e-02</leafValues></_>
    <_>
      <internalNodes>
        0 -1 3936 1.0072193108499050e-02</internalNodes>
      <leafValues>
        -1.1139549314975739e-01 2.8101873397827148e-01</leafValues></_>
    <_>
      <internalNodes>
        0 -1 906 -3.6409832537174225e-02</internalNodes>
      <leafValues>
        3.3563184738159180e-01 -1.0001884400844574e-01</leafValues></_>
    <_>
      <internalNodes>
        0 -1 24507 3.3263913355767727e-03</internalNodes>
      <leafValues>
        -9.7831897437572479e-02 3.1142050027847290e-01</leafValues></_>
    <_>
      <internalNodes>
        0 -1 48813 4.2623113840818405e-03</internalNodes>
      <leafValues>
        -8.2846939563751221e-02 3.3968320488929749e-01</leafValues></_>
    <_>
      <internalNodes>
        0 -1 59764 -2.2474471479654312e-03</internalNodes>
      <leafValues>
        1.7675149440765381e-01 -1.6408096253871918e-01</leafValues></_>
    <_>
      <internalNodes>
        0 -1 74838 1.2545853387564421e-03</internalNodes>
      <leafValues>
        -1.2371019273996353e-01 2.6070106029510498e-01</leafValues></_>
    <_>
      <internalNodes>
        0 -1 38731 1.5393609181046486e-02</internalNodes>
      <leafValues>
        6.3261717557907104e-02 -5.2957934141159058e-01</leafValues></_>
    <_>
      <internalNodes>
        0 -1 49187 -5.8764354325830936e-03</internalNodes>
      <leafValues>
        -7.1607458591461182e-01 3.6081377416849136e-02</leafValues></_>
    <_>
      <internalNodes>
        0 -1 51268 -1.2580639682710171e-02</internalNodes>
      <leafValues>
        -8.6131131649017334e-01 2.6356421411037445e-02</leafValues></_>
    <_>
      <internalNodes>
        0 -1 58731 -2.6256332639604807e-03</internalNodes>
      <leafValues>
        2.3115816712379456e-01 -1.2513703107833862e-01</leafValues></_>
    <_>
      <internalNodes>
        0 -1 68297 3.6368495784699917e-03</internalNodes>
      <leafValues>
        -1.1843898892402649e-01 2.4686278402805328e-01</leafValues></_>
    <_>
      <internalNodes>
        0 -1 34676 -7.4264025315642357e-03</internalNodes>
      <leafValues>
        2.3055967688560486e-01 -1.3634492456912994e-01</leafValues></_>
    <_>
      <internalNodes>
        0 -1 45521 2.5504603981971741e-02</internalNodes>
      <leafValues>
        -6.5777719020843506e-02 4.6061876416206360e-01</leafValues></_>
    <_>
      <internalNodes>
        0 -1 55442 -2.6002023369073868e-02</internalNodes>
      <leafValues>
        -6.8876975774765015e-01 4.6696562319993973e-02</leafValues></_>
    <_>
      <internalNodes>
        0 -1 69597 9.2409236822277308e-04</internalNodes>
      <leafValues>
        -1.2350339442491531e-01 2.7480921149253845e-01</leafValues></_>
    <_>
      <internalNodes>
        0 -1 18408 -1.4494957402348518e-02</internalNodes>
      <leafValues>
        -6.8774151802062988e-01 4.6676345169544220e-02</leafValues></_>
    <_>
      <internalNodes>
        0 -1 66550 -9.9615175276994705e-03</internalNodes>
      <leafValues>
        2.6997143030166626e-01 -1.1582221090793610e-01</leafValues></_>
    <_>
      <internalNodes>
        0 -1 5292 -9.2250555753707886e-02</internalNodes>
      <leafValues>
        2.9287117719650269e-01 -1.0900506377220154e-01</leafValues></_>
    <_>
      <internalNodes>
        0 -1 28714 4.7441236674785614e-03</internalNodes>
      <leafValues>
        6.8333216011524200e-02 -4.7909027338027954e-01</leafValues></_>
    <_>
      <internalNodes>
        0 -1 35148 1.8783798813819885e-01</internalNodes>
      <leafValues>
        3.5608168691396713e-02 -7.5021892786026001e-01</leafValues></_>
    <_>
      <internalNodes>
        0 -1 41322 -7.2925322456285357e-04</internalNodes>
      <leafValues>
        2.4705635011196136e-01 -1.3302092254161835e-01</leafValues></_>
    <_>
      <internalNodes>
        0 -1 35268 -3.0630987603217363e-03</internalNodes>
      <leafValues>
        2.8489813208580017e-01 -1.4579649269580841e-01</leafValues></_></weakClassifiers></stage4>
</opencv_storage>
