<?xml version="1.0"?>
<opencv_storage>
<stage9>
  <maxWeakCount>57</maxWeakCount>
  <stageThreshold>-6.8407660722732544e-01</stageThreshold>
  <weakClassifiers>
    <_>
      <internalNodes>
        0 -1 111742 1.8940805457532406e-03</internalNodes>
      <leafValues>
        1.6509729623794556e-01 5.7542908191680908e-01</leafValues></_>
    <_>
      <internalNodes>
        0 -1 79905 2.4151347577571869e-02</internalNodes>
      <leafValues>
        -7.5199276208877563e-02 4.8698183894157410e-01</leafValues></_>
    <_>
      <internalNodes>
        0 -1 100361 2.8999708592891693e-03</internalNodes>
      <leafValues>
        1.4598109759390354e-02 -6.7812466621398926e-01</leafValues></_>
    <_>
      <internalNodes>
        0 -1 41102 -4.3884529732167721e-03</internalNodes>
      <leafValues>
        2.3780593276023865e-01 -1.3239990174770355e-01</leafValues></_>
    <_>
      <internalNodes>
        0 -1 111926 9.7327753901481628e-03</internalNodes>
      <leafValues>
        -6.1954002827405930e-02 4.9410414695739746e-01</leafValues></_>
    <_>
      <internalNodes>
        0 -1 94502 -1.0035786777734756e-02</internalNodes>
      <leafValues>
        -6.3662302494049072e-01 7.9448424279689789e-02</leafValues></_>
    <_>
      <internalNodes>
        0 -1 99911 -5.7615907862782478e-03</internalNodes>
      <leafValues>
        -7.9158574342727661e-01 3.5242628306150436e-02</leafValues></_>
    <_>
      <internalNodes>
        0 -1 118189 1.7295549623668194e-03</internalNodes>
      <leafValues>
        -1.0618218779563904e-01 3.0558583140373230e-01</leafValues></_>
    <_>
      <internalNodes>
        0 -1 44064 -1.8736070487648249e-03</internalNodes>
      <leafValues>
        2.4815279245376587e-01 -1.3294743001461029e-01</leafValues></_>
    <_>
      <internalNodes>
        0 -1 75928 1.3554630568251014e-03</internalNodes>
      <leafValues>
        1.3668787479400635e-01 -2.2610594332218170e-01</leafValues></_>
    <_>
      <internalNodes>
        0 -1 32612 3.7862926721572876e-02</internalNodes>
      <leafValues>
        8.0696478486061096e-02 -4.1870021820068359e-01</leafValues></_>
    <_>
      <internalNodes>
        0 -1 1079 -2.0582875236868858e-02</internalNodes>
      <leafValues>
        6.6681510210037231e-01 -4.0820129215717316e-02</leafValues></_>
    <_>
      <internalNodes>
        0 -1 67466 3.4238072112202644e-03</internalNodes>
      <leafValues>
        4.0502689778804779e-02 -5.9235292673110962e-01</leafValues></_>
    <_>
      <internalNodes>
        0 -1 94922 -1.9918486941605806e-03</internalNodes>
      <leafValues>
        2.0138956606388092e-01 -1.2367634475231171e-01</leafValues></_>
    <_>
      <internalNodes>
        0 -1 100415 -1.1220033047720790e-03</internalNodes>
      <leafValues>
        1.3056455552577972e-01 -2.6810681819915771e-01</leafValues></_>
    <_>
      <internalNodes>
        0 -1 99907 -1.9227340817451477e-04</internalNodes>
      <leafValues>
        1.6946470737457275e-01 -1.4416083693504333e-01</leafValues></_>
    <_>
      <internalNodes>
        0 -1 5283 5.8316364884376526e-03</internalNodes>
      <leafValues>
        -8.3456933498382568e-02 2.6874935626983643e-01</leafValues></_>
    <_>
      <internalNodes>
        0 -1 7195 -2.7679218910634518e-03</internalNodes>
      <leafValues>
        2.1661904454231262e-01 -1.2282822281122208e-01</leafValues></_>
    <_>
      <internalNodes>
        0 -1 90603 -3.8403121288865805e-03</internalNodes>
      <leafValues>
        -6.0987228155136108e-01 4.1344683617353439e-02</leafValues></_>
    <_>
      <internalNodes>
        0 -1 100365 4.7439965419471264e-03</internalNodes>
      <leafValues>
        3.5456065088510513e-02 -6.5585440397262573e-01</leafValues></_>
    <_>
      <internalNodes>
        0 -1 10641 2.9489547014236450e-02</internalNodes>
      <leafValues>
        -1.2872333824634552e-01 1.8879376351833344e-01</leafValues></_>
    <_>
      <internalNodes>
        0 -1 1246 -2.2904435172677040e-02</internalNodes>
      <leafValues>
        2.5166290998458862e-01 -1.1329291760921478e-01</leafValues></_>
    <_>
      <internalNodes>
        0 -1 25197 -1.0184621438384056e-02</internalNodes>
      <leafValues>
        -3.0416300892829895e-01 8.5300751030445099e-02</leafValues></_>
    <_>
      <internalNodes>
        0 -1 101639 3.5720178857445717e-03</internalNodes>
      <leafValues>
        -8.0981038510799408e-02 3.6515977978706360e-01</leafValues></_>
    <_>
      <internalNodes>
        0 -1 107718 -3.7573191802948713e-03</internalNodes>
      <leafValues>
        4.3066760897636414e-01 -5.2863512188196182e-02</leafValues></_>
    <_>
      <internalNodes>
        0 -1 67766 -3.8496159017086029e-02</internalNodes>
      <leafValues>
        -7.3893040418624878e-01 3.7530712783336639e-02</leafValues></_>
    <_>
      <internalNodes>
        0 -1 91438 3.6089979112148285e-03</internalNodes>
      <leafValues>
        -8.5099823772907257e-02 3.0938425660133362e-01</leafValues></_>
    <_>
      <internalNodes>
        0 -1 6064 -6.2749376520514488e-03</internalNodes>
      <leafValues>
        -4.4691410660743713e-01 5.9127829968929291e-02</leafValues></_>
    <_>
      <internalNodes>
        0 -1 44236 1.4407521113753319e-02</internalNodes>
      <leafValues>
        6.6982097923755646e-02 -3.3698198199272156e-01</leafValues></_>
    <_>
      <internalNodes>
        0 -1 52077 -2.6980552356690168e-03</internalNodes>
      <leafValues>
        2.6848369836807251e-01 -1.0785601288080215e-01</leafValues></_>
    <_>
      <internalNodes>
        0 -1 93378 -1.0079219006001949e-02</internalNodes>
      <leafValues>
        -6.1494475603103638e-01 4.1902117431163788e-02</leafValues></_>
    <_>
      <internalNodes>
        0 -1 140146 -3.0331765301525593e-03</internalNodes>
      <leafValues>
        2.3702812194824219e-01 -1.1245463788509369e-01</leafValues></_>
    <_>
      <internalNodes>
        0 -1 9039 -3.3324339892715216e-03</internalNodes>
      <leafValues>
        -4.3242692947387695e-01 5.7897575199604034e-02</leafValues></_>
    <_>
      <internalNodes>
        0 -1 135160 -3.5679154098033905e-03</internalNodes>
      <leafValues>
        1.8097449839115143e-01 -1.2865097820758820e-01</leafValues></_>
    <_>
      <internalNodes>
        0 -1 43062 -9.5773320645093918e-03</internalNodes>
      <leafValues>
        4.3848705291748047e-01 -5.4784476757049561e-02</leafValues></_>
    <_>
      <internalNodes>
        0 -1 100806 2.6143218856304884e-03</internalNodes>
      <leafValues>
        3.6483008414506912e-02 -7.1912276744842529e-01</leafValues></_>
    <_>
      <internalNodes>
        0 -1 34613 7.8297220170497894e-03</internalNodes>
      <leafValues>
        -8.4312483668327332e-02 3.3808845281600952e-01</leafValues></_>
    <_>
      <internalNodes>
        0 -1 53636 -1.1486873030662537e-02</internalNodes>
      <leafValues>
        2.8704169392585754e-01 -8.7280988693237305e-02</leafValues></_>
    <_>
      <internalNodes>
        0 -1 86037 1.8337339162826538e-02</internalNodes>
      <leafValues>
        -4.8310235142707825e-02 4.9091833829879761e-01</leafValues></_>
    <_>
      <internalNodes>
        0 -1 26305 -2.9754023998975754e-03</internalNodes>
      <leafValues>
        -3.9158955216407776e-01 6.1505481600761414e-02</leafValues></_>
    <_>
      <internalNodes>
        0 -1 126143 -2.8149152640253305e-03</internalNodes>
      <leafValues>
        2.1500737965106964e-01 -1.1550008505582809e-01</leafValues></_>
    <_>
      <internalNodes>
        0 -1 119516 -1.3256346574053168e-03</internalNodes>
      <leafValues>
        -3.0691614747047424e-01 7.8557915985584259e-02</leafValues></_>
    <_>
      <internalNodes>
        0 -1 3715 1.2344723567366600e-02</internalNodes>
      <leafValues>
        -6.7540995776653290e-02 3.5869383811950684e-01</leafValues></_>
    <_>
      <internalNodes>
        0 -1 74939 7.9790614545345306e-03</internalNodes>
      <leafValues>
        -6.6191613674163818e-02 3.3326029777526855e-01</leafValues></_>
    <_>
      <internalNodes>
        0 -1 74377 -3.4961306955665350e-03</internalNodes>
      <leafValues>
        2.6502573490142822e-01 -1.0337292402982712e-01</leafValues></_>
    <_>
      <internalNodes>
        0 -1 74160 -3.4597732126712799e-02</internalNodes>
      <leafValues>
        -4.2068612575531006e-01 6.5858475863933563e-02</leafValues></_>
    <_>
      <internalNodes>
        0 -1 106305 -2.2987640113569796e-04</internalNodes>
      <leafValues>
        1.7965903878211975e-01 -1.3555297255516052e-01</leafValues></_>
    <_>
      <internalNodes>
        0 -1 116148 -3.2317760633304715e-04</internalNodes>
      <leafValues>
        1.7105294764041901e-01 -1.4396207034587860e-01</leafValues></_>
    <_>
      <internalNodes>
        0 -1 13082 2.9432531446218491e-03</internalNodes>
      <leafValues>
        4.1136674582958221e-02 -6.1080646514892578e-01</leafValues></_>
    <_>
      <internalNodes>
        0 -1 86048 -2.7557531371712685e-02</internalNodes>
      <leafValues>
        2.7506214380264282e-01 -8.8738515973091125e-02</leafValues></_>
    <_>
      <internalNodes>
        0 -1 79481 1.4393392950296402e-02</internalNodes>
      <leafValues>
        -1.3763244450092316e-01 2.3897925019264221e-01</leafValues></_>
    <_>
      <internalNodes>
        0 -1 30634 -3.3705286681652069e-02</internalNodes>
      <leafValues>
        2.5773319602012634e-01 -9.3100689351558685e-02</leafValues></_>
    <_>
      <internalNodes>
        0 -1 38766 7.5910836458206177e-02</internalNodes>
      <leafValues>
        -4.5824885368347168e-02 5.4862391948699951e-01</leafValues></_>
    <_>
      <internalNodes>
        0 -1 100369 -4.5782019151374698e-04</internalNodes>
      <leafValues>
        1.8219502270221710e-01 -1.4747940003871918e-01</leafValues></_>
    <_>
      <internalNodes>
        0 -1 93914 -6.3127232715487480e-04</internalNodes>
      <leafValues>
        1.8486182391643524e-01 -1.8061733245849609e-01</leafValues></_>
    <_>
      <internalNodes>
        0 -1 140381 -6.3079729443415999e-04</internalNodes>
      <leafValues>
        1.8417690694332123e-01 -1.2702380120754242e-01</leafValues></_>
    <_>
      <internalNodes>
        0 -1 137475 -9.6964894328266382e-04</internalNodes>
      <leafValues>
        1.9063574075698853e-01 -1.2552911043167114e-01</leafValues></_></weakClassifiers></stage9>
</opencv_storage>
