<?xml version="1.0"?>
<opencv_storage>
<stage7>
  <maxWeakCount>48</maxWeakCount>
  <stageThreshold>-7.1020579338073730e-01</stageThreshold>
  <weakClassifiers>
    <_>
      <internalNodes>
        0 -1 100360 2.1729731815867126e-04</internalNodes>
      <leafValues>
        4.2882964015007019e-01 -1.0061601549386978e-01</leafValues></_>
    <_>
      <internalNodes>
        0 -1 107985 -4.0565510280430317e-03</internalNodes>
      <leafValues>
        5.6363910436630249e-01 -8.5108339786529541e-02</leafValues></_>
    <_>
      <internalNodes>
        0 -1 123962 -6.3102580606937408e-03</internalNodes>
      <leafValues>
        3.8298389315605164e-01 -1.0323547571897507e-01</leafValues></_>
    <_>
      <internalNodes>
        0 -1 106406 -2.4982308968901634e-03</internalNodes>
      <leafValues>
        2.0814044773578644e-01 -1.7729128897190094e-01</leafValues></_>
    <_>
      <internalNodes>
        0 -1 95320 -3.5185313317924738e-03</internalNodes>
      <leafValues>
        -5.2767318487167358e-01 4.3574351817369461e-02</leafValues></_>
    <_>
      <internalNodes>
        0 -1 116625 -2.5211608037352562e-02</internalNodes>
      <leafValues>
        -4.5722737908363342e-01 6.9488734006881714e-02</leafValues></_>
    <_>
      <internalNodes>
        0 -1 89911 -1.5150399412959814e-03</internalNodes>
      <leafValues>
        2.5340399146080017e-01 -1.3022980093955994e-01</leafValues></_>
    <_>
      <internalNodes>
        0 -1 93955 -1.6973628953564912e-04</internalNodes>
      <leafValues>
        1.8072921037673950e-01 -1.8971800804138184e-01</leafValues></_>
    <_>
      <internalNodes>
        0 -1 82467 -7.1479624602943659e-04</internalNodes>
      <leafValues>
        2.0406296849250793e-01 -1.4855799078941345e-01</leafValues></_>
    <_>
      <internalNodes>
        0 -1 89523 -2.6399071794003248e-03</internalNodes>
      <leafValues>
        -5.9489208459854126e-01 5.4787140339612961e-02</leafValues></_>
    <_>
      <internalNodes>
        0 -1 17250 1.4721376355737448e-03</internalNodes>
      <leafValues>
        -1.2184029817581177e-01 2.7247002720832825e-01</leafValues></_>
    <_>
      <internalNodes>
        0 -1 94870 -2.5678891688585281e-04</internalNodes>
      <leafValues>
        1.8340624868869781e-01 -1.8663300573825836e-01</leafValues></_>
    <_>
      <internalNodes>
        0 -1 106414 1.6455106437206268e-02</internalNodes>
      <leafValues>
        5.5445574223995209e-02 -6.2194955348968506e-01</leafValues></_>
    <_>
      <internalNodes>
        0 -1 91283 4.1642505675554276e-03</internalNodes>
      <leafValues>
        -1.1468125879764557e-01 3.0089518427848816e-01</leafValues></_>
    <_>
      <internalNodes>
        0 -1 82935 -4.4290646910667419e-03</internalNodes>
      <leafValues>
        -5.7267361879348755e-01 6.4940631389617920e-02</leafValues></_>
    <_>
      <internalNodes>
        0 -1 106359 -2.0325183868408203e-03</internalNodes>
      <leafValues>
        2.4523618817329407e-01 -1.2742191553115845e-01</leafValues></_>
    <_>
      <internalNodes>
        0 -1 124769 -3.2489560544490814e-03</internalNodes>
      <leafValues>
        2.6664254069328308e-01 -1.1487450450658798e-01</leafValues></_>
    <_>
      <internalNodes>
        0 -1 94393 -1.9832213001791388e-04</internalNodes>
      <leafValues>
        1.2803423404693604e-01 -2.6569178700447083e-01</leafValues></_>
    <_>
      <internalNodes>
        0 -1 127190 -8.1335585564374924e-03</internalNodes>
      <leafValues>
        -4.4810342788696289e-01 7.5961008667945862e-02</leafValues></_>
    <_>
      <internalNodes>
        0 -1 127902 -5.7116476818919182e-03</internalNodes>
      <leafValues>
        4.0385532379150391e-01 -8.1606969237327576e-02</leafValues></_>
    <_>
      <internalNodes>
        0 -1 94393 -3.4025958739221096e-03</internalNodes>
      <leafValues>
        -4.9637866020202637e-01 6.3878417015075684e-02</leafValues></_>
    <_>
      <internalNodes>
        0 -1 111882 1.6289951279759407e-02</internalNodes>
      <leafValues>
        4.1998963803052902e-02 -6.0719007253646851e-01</leafValues></_>
    <_>
      <internalNodes>
        0 -1 2046 -2.0847864449024200e-02</internalNodes>
      <leafValues>
        3.6221188306808472e-01 -8.2625076174736023e-02</leafValues></_>
    <_>
      <internalNodes>
        0 -1 83400 3.4243119880557060e-03</internalNodes>
      <leafValues>
        -8.8058605790138245e-02 3.1782424449920654e-01</leafValues></_>
    <_>
      <internalNodes>
        0 -1 101595 -3.3264178782701492e-03</internalNodes>
      <leafValues>
        -8.5199362039566040e-01 3.3025741577148438e-02</leafValues></_>
    <_>
      <internalNodes>
        0 -1 94011 -5.1884679123759270e-03</internalNodes>
      <leafValues>
        3.9414143562316895e-01 -8.2841567695140839e-02</leafValues></_>
    <_>
      <internalNodes>
        0 -1 47186 -1.5885815024375916e-02</internalNodes>
      <leafValues>
        3.0155283212661743e-01 -9.4777107238769531e-02</leafValues></_>
    <_>
      <internalNodes>
        0 -1 25984 5.2450746297836304e-02</internalNodes>
      <leafValues>
        5.8974418789148331e-02 -4.8898184299468994e-01</leafValues></_>
    <_>
      <internalNodes>
        0 -1 3127 4.6068940311670303e-02</internalNodes>
      <leafValues>
        -1.1716680228710175e-01 2.6274380087852478e-01</leafValues></_>
    <_>
      <internalNodes>
        0 -1 87202 8.8959820568561554e-03</internalNodes>
      <leafValues>
        -4.4170215725898743e-02 5.6211507320404053e-01</leafValues></_>
    <_>
      <internalNodes>
        0 -1 69433 -5.7069621980190277e-02</internalNodes>
      <leafValues>
        -3.3335015177726746e-01 8.1754125654697418e-02</leafValues></_>
    <_>
      <internalNodes>
        0 -1 136008 1.0842673480510712e-02</internalNodes>
      <leafValues>
        4.0474288165569305e-02 -6.0702556371688843e-01</leafValues></_>
    <_>
      <internalNodes>
        0 -1 40862 7.6618338935077190e-03</internalNodes>
      <leafValues>
        -1.0020446032285690e-01 2.7939161658287048e-01</leafValues></_>
    <_>
      <internalNodes>
        0 -1 24649 4.3768767267465591e-02</internalNodes>
      <leafValues>
        4.3026380240917206e-02 -7.0102387666702271e-01</leafValues></_>
    <_>
      <internalNodes>
        0 -1 77832 -1.3244938105344772e-02</internalNodes>
      <leafValues>
        4.4221737980842590e-01 -6.2932267785072327e-02</leafValues></_>
    <_>
      <internalNodes>
        0 -1 21328 -1.4508944004774094e-02</internalNodes>
      <leafValues>
        3.6118966341018677e-01 -6.9154590368270874e-02</leafValues></_>
    <_>
      <internalNodes>
        0 -1 51380 -4.6330010518431664e-03</internalNodes>
      <leafValues>
        -5.2633059024810791e-01 5.3999532014131546e-02</leafValues></_>
    <_>
      <internalNodes>
        0 -1 59640 -7.1847103536128998e-03</internalNodes>
      <leafValues>
        -8.2581353187561035e-01 2.7180576696991920e-02</leafValues></_>
    <_>
      <internalNodes>
        0 -1 120941 4.9116194248199463e-02</internalNodes>
      <leafValues>
        3.1868971884250641e-02 -6.5495640039443970e-01</leafValues></_>
    <_>
      <internalNodes>
        0 -1 116240 5.3793308325111866e-03</internalNodes>
      <leafValues>
        -7.0795066654682159e-02 4.0696942806243896e-01</leafValues></_>
    <_>
      <internalNodes>
        0 -1 123458 -2.1568904630839825e-03</internalNodes>
      <leafValues>
        -3.8914933800697327e-01 7.2145238518714905e-02</leafValues></_>
    <_>
      <internalNodes>
        0 -1 59684 2.9452727176249027e-03</internalNodes>
      <leafValues>
        -1.2058716267347336e-01 2.2640182077884674e-01</leafValues></_>
    <_>
      <internalNodes>
        0 -1 134241 -3.1888387165963650e-03</internalNodes>
      <leafValues>
        2.4526351690292358e-01 -1.1244480311870575e-01</leafValues></_>
    <_>
      <internalNodes>
        0 -1 138660 -1.4639203436672688e-03</internalNodes>
      <leafValues>
        2.4330657720565796e-01 -1.1785295605659485e-01</leafValues></_>
    <_>
      <internalNodes>
        0 -1 59689 1.2313169427216053e-02</internalNodes>
      <leafValues>
        5.9873495250940323e-02 -4.8278424143791199e-01</leafValues></_>
    <_>
      <internalNodes>
        0 -1 54073 -2.5834827683866024e-03</internalNodes>
      <leafValues>
        2.7954906225204468e-01 -9.3061946332454681e-02</leafValues></_>
    <_>
      <internalNodes>
        0 -1 43534 -4.2152320966124535e-03</internalNodes>
      <leafValues>
        2.7299389243125916e-01 -9.8822817206382751e-02</leafValues></_>
    <_>
      <internalNodes>
        0 -1 60694 -1.1180650442838669e-02</internalNodes>
      <leafValues>
        -3.8711538910865784e-01 8.0579265952110291e-02</leafValues></_></weakClassifiers></stage7>
</opencv_storage>
